net
{
     node_size = (0 0);
     name = "New BN";
     tree = "(C0,C1,C2)";
     UnBBayes_Color_Probabilistic_Description = "-256";
     UnBBayes_Color_Probabilistic_Explanation = "-16711936";
}

node Lluvia
{
     label = "C0";
     position = (26 55);
     color = (-256);
     states = ("YES" "NO" "State");
}

node Aspersor
{
     label = "C1";
     position = (336 68);
     color = (-256);
     states = ("YES" "NO" "State1");
}

node Cesped
{
     label = "C2";
     position = (195 266);
     color = (-256);
     states = ("YES" "NO");
}

node C3
{
     label = "C3";
     position = (183 0);
     color = (-256);
     states = ("State2" "State3" "State4" "State5");
}

node C4
{
     label = "C4";
     position = (499 143);
     color = (-256);
     states = ("State7" "State1" "State4");
}

potential (Lluvia)
{
 data = ( 0.5 0.4 0.1 );
}

potential (Aspersor | Lluvia)
{
 data = (( 0.8 0.2 0.0 )
( 0.7 0.3 0.0 )
( 0.6 0.4 0.0 ));
}

potential (Cesped | Lluvia Aspersor C3 C4)
{
 data = ((((( 7.8 4.2000003 )
( 7.8 4.2000003 )
( 7.8 4.2000003 ))
(( 7.8 4.2000003 )
( 7.8 4.2000003 )
( 7.8 4.2000003 ))
(( 7.8 4.2000003 )
( 7.8 4.2000003 )
( 7.8 4.2000003 )))
((( 7.8 4.2000003 )
( 7.8 4.2000003 )
( 7.8 4.2000003 ))
(( 7.8 4.2000003 )
( 7.8 4.2000003 )
( 7.8 4.2000003 ))
(( 7.8 4.2000003 )
( 7.8 4.2000003 )
( 7.8 4.2000003 )))
((( 7.8 4.2000003 )
( 7.8 4.2000003 )
( 7.8 4.2000003 ))
(( 7.8 4.2000003 )
( 7.8 4.2000003 )
( 7.8 4.2000003 ))
(( 7.8 4.2000003 )
( 7.8 4.2000003 )
( 7.8 4.2000003 )))
((( 7.8 4.2000003 )
( 7.8 4.2000003 )
( 7.8 4.2000003 ))
(( 7.8 4.2000003 )
( 7.8 4.2000003 )
( 7.8 4.2000003 ))
(( 7.8 4.2000003 )
( 7.8 4.2000003 )
( 7.8 4.2000003 ))))
(((( 7.8 4.2000003 )
( 7.8 4.2000003 )
( 7.8 4.2000003 ))
(( 7.8 4.2000003 )
( 7.8 4.2000003 )
( 7.8 4.2000003 ))
(( 7.8 4.2000003 )
( 7.8 4.2000003 )
( 7.8 4.2000003 )))
((( 7.8 4.2000003 )
( 7.8 4.2000003 )
( 7.8 4.2000003 ))
(( 7.8 4.2000003 )
( 7.8 4.2000003 )
( 7.8 4.2000003 ))
(( 7.8 4.2000003 )
( 7.8 4.2000003 )
( 7.8 4.2000003 )))
((( 7.8 4.2000003 )
( 7.8 4.2000003 )
( 7.8 4.2000003 ))
(( 7.8 4.2000003 )
( 7.8 4.2000003 )
( 7.8 4.2000003 ))
(( 7.8 4.2000003 )
( 7.8 4.2000003 )
( 7.8 4.2000003 )))
((( 7.8 4.2000003 )
( 7.8 4.2000003 )
( 7.8 4.2000003 ))
(( 7.8 4.2000003 )
( 7.8 4.2000003 )
( 7.8 4.2000003 ))
(( 7.8 4.2000003 )
( 7.8 4.2000003 )
( 7.8 4.2000003 ))))
(((( 7.8 4.2000003 )
( 7.8 4.2000003 )
( 7.8 4.2000003 ))
(( 7.8 4.2000003 )
( 7.8 4.2000003 )
( 7.8 4.2000003 ))
(( 7.8 4.2000003 )
( 7.8 4.2000003 )
( 7.8 4.2000003 )))
((( 7.8 4.2000003 )
( 7.8 4.2000003 )
( 7.8 4.2000003 ))
(( 7.8 4.2000003 )
( 7.8 4.2000003 )
( 7.8 4.2000003 ))
(( 7.8 4.2000003 )
( 7.8 4.2000003 )
( 7.8 4.2000003 )))
((( 7.8 4.2000003 )
( 7.8 4.2000003 )
( 7.8 4.2000003 ))
(( 7.8 4.2000003 )
( 7.8 4.2000003 )
( 7.8 4.2000003 ))
(( 7.8 4.2000003 )
( 7.8 4.2000003 )
( 7.8 4.2000003 )))
((( 7.8 4.2000003 )
( 7.8 4.2000003 )
( 7.8 4.2000003 ))
(( 7.8 4.2000003 )
( 7.8 4.2000003 )
( 7.8 4.2000003 ))
(( 7.8 4.2000003 )
( 7.8 4.2000003 )
( 7.8 4.2000003 )))));
}

potential (C3)
{
 data = ( 1.0 0.0 0.0 0.0 );
}

potential (C4)
{
 data = ( 1.0 0.0 0.0 );
}

